[[ -7.337748  37.62795    4.028541 -23.33442    4.729778]]
[[ -4.625696   42.331596    3.8096504 -20.711342    7.206937 ]]
[[ -5.328932   19.668129    3.8625734 -20.020634    5.065585 ]]
[[ -3.3364959  31.0708      3.280468  -18.795677    5.648865 ]]
[[ -4.9554567  35.783466    4.4137573 -21.714985    6.053403 ]]
[[ -8.671386   39.265835    5.7670746 -24.449913    6.535358 ]]
[[ -5.0637684  23.394318    5.0673633 -22.992947    9.468487 ]]
[[ -6.5368466  27.012589    3.566162  -19.46776     4.5382385]]
[[ -6.6739697  17.279264    4.1180506 -20.660706    4.8706264]]
[[ -4.707906  30.442955   4.018819 -20.636127   8.238079]]
[[ -3.054943   26.348871    2.7707598 -17.762955    7.0721135]]
[[ -4.261723   43.678574    3.9193864 -21.236805    5.352033 ]]
[[ -3.508477   30.541475    2.961022  -18.422466    5.0557566]]
[[ -6.7503877  26.657372    5.410132  -24.026154    9.34315  ]]
[[ -5.027888  24.940329   4.684096 -20.781391   8.892016]]
[[ -4.8733273  33.158165    3.9879477 -20.014467    6.351238 ]]
[[ -4.114331   26.543312    3.556342  -19.153316    7.0962477]]
[[ -6.766927   31.675404    5.3552184 -23.46707     8.47472  ]]
[[ -5.3109007  30.412249    4.1431866 -20.980507    6.6662574]]
