[[ 10.785979 -10.125548  51.18954  -13.728005 -33.909077   8.957716]]
[[ 12.930596   -1.3096554  21.566177  -18.865675  -39.568535   14.05733  ]]
[[ 15.684145  -5.64028   14.663923 -18.938993 -32.31596   11.608791]]
[[ 16.34165   -4.016666  23.35779  -20.554754 -32.73922   14.799034]]
[[ 15.136378  -4.706874  25.526545 -21.263975 -36.166355  14.564937]]
[[  2.6133277 -13.273266   37.37837   -14.4434595 -32.255524   10.731163 ]]
[[ 17.120747  -0.987313  17.402237 -20.45103  -39.702133  14.723893]]
[[ 26.12832   -9.057164  66.151405 -24.626183 -38.937798  13.674168]]
[[ 17.325792  -6.632082  24.548582 -24.181915 -40.03612   13.276681]]
[[  7.6720543  -9.088725   28.246944  -16.778063  -33.70042    17.216764 ]]
[[ 24.332045   -2.9019563  16.405928  -24.467524  -40.7913     19.143202 ]]
[[ 18.45448  -13.741276  41.04796  -21.91757  -40.99436   14.399932]]
[[ 21.2898     -6.3471365  44.4474    -28.439142  -40.817883   16.142292 ]]
[[ 11.457526 -10.089047  37.57903  -22.094114 -39.008717  19.498205]]
[[ 15.365377   -3.3602614  27.085882  -21.367826  -41.67768    18.297075 ]]
[[ 24.040438   -2.1360266  30.100674  -21.583744  -44.810974   15.020525 ]]
[[ 18.99744    -5.0665255  22.228294  -23.092087  -36.519608   19.318651 ]]
[[ 19.301767   -5.7600865  28.689617  -22.696518  -37.77388    16.99832  ]]
[[ 16.387657   -6.3466606  30.978685  -21.082811  -37.87364    15.134925 ]]
