[[-4.710147  11.455668   2.7345314 -6.324981   5.0849032]]
[[-4.736139   8.69231    2.5109162 -5.662498   8.438303 ]]
[[-5.5164776 11.462376   3.5141096 -5.929556   6.4027667]]
[[-4.624234   7.5344496  2.946978  -5.6161504  8.106836 ]]
[[-4.81665    9.436401   2.8200264 -5.5963354  7.167802 ]]
[[-5.5520515 15.157956   2.768247  -5.5604587  6.5407753]]
[[-4.411369   8.207003   2.8757432 -5.6227784 10.379535 ]]
[[-5.116166  11.439857   2.817629  -5.5429354  5.5450535]]
[[-5.1031127 16.036074   3.1027029 -5.7575383  5.622336 ]]
[[-5.1148734  9.5786495  2.947598  -5.722851  10.144848 ]]
[[-4.6455617  7.266742   3.4605966 -5.829373   9.362778 ]]
[[-6.247905  12.714309   2.5479643 -5.9241076  6.490455 ]]
[[-4.6308637  9.545825   2.8326938 -5.5364842  6.8866076]]
[[-5.1895585 11.101663   2.3362424 -5.3321137  9.266715 ]]
[[-4.8183494  8.94542    2.972846  -6.0256987  9.933377 ]]
[[-5.036101   9.063668   2.7718658 -6.005358   8.298087 ]]
[[-4.5124393  6.350982   2.7208488 -5.368073   8.436578 ]]
[[-5.0579433  9.78485    2.9513102 -5.754767   8.910999 ]]
[[-0.663919   5.7955904  2.33116   -4.1949544 10.082509 ]]
[[-1.4513035 13.694645   2.532172  -3.9828687  5.1026077]]
[[-2.9341848 13.673924   2.1368592 -3.3990011  7.2159996]]
[[-1.9796646 14.786344   2.1007314 -3.7630615  5.4379067]]
[[-2.074348  10.345607   2.1522899 -4.059533   9.777913 ]]
[[-1.1547647  9.0975895  2.0877059 -4.0777426  8.407801 ]]
[[-1.3538389 11.224157   1.9720634 -3.9644475  6.9080715]]
[[-1.696643  12.3887205  2.1834598 -4.092076   7.6217637]]
[[-0.6155734  7.0159135  1.97424   -3.3502395  8.244986 ]]
[[-0.36670226 11.411344    2.3159552  -3.0571194   3.6795082 ]]
[[-1.3464594 12.926969   2.4240053 -4.1419787  5.4473724]]
[[-2.5924053 13.269747   2.4849608 -4.0953627  5.043887 ]]
[[-2.9148924 14.286869   2.1174376 -3.7315948  4.72007  ]]
[[-0.5855837 10.171601   2.1959062 -3.5333912  5.133796 ]]
[[-0.8303096  9.332119   2.1649184 -3.944225   8.3922205]]
[[-1.4100412 10.472797   2.2235363 -4.2140517  8.741678 ]]
[[-2.5827997  9.24611    2.0534759 -3.7762313  6.142268 ]]
[[-0.9067065 11.885231   2.1048727 -4.076823   5.873492 ]]
[[0.70174587 9.737648   1.5224854  0.37329754 4.8685713 ]]
[[1.4108787 7.1932096 1.6389452 0.462809  7.4584813]]
[[ 1.4874623   5.1039705   1.5817174   0.41750205 10.14748   ]]
[[ 1.3068087  11.534102    1.8748376   0.42450812  4.5527315 ]]
[[ 1.3834088   7.834594    1.655665    0.41647235 11.018962  ]]
[[0.73396665 9.6511135  1.592614   0.37338138 5.501102  ]]
[[1.3944496  6.1325016  1.5056299  0.40916088 9.024457  ]]
[[1.4767612  7.2723293  1.6962094  0.47365937 6.5746593 ]]
[[0.9259665 8.602585  1.6991191 0.3931018 7.365772 ]]
[[ 0.73087114 16.813854    1.7128769   0.34251225  5.472882  ]]
[[-0.02818588 12.079254    1.6993533   0.37981632  3.7128901 ]]
[[0.7758216  7.9488397  1.3227154  0.42732686 5.1164227 ]]
[[0.8043368  8.533705   1.6080346  0.38817322 5.203335  ]]
[[1.4517353 6.5993176 1.6913729 0.438713  7.326738 ]]
[[ 0.87127376 10.322656    1.5842563   0.38266876  7.3167696 ]]
[[1.433135   4.7119303  1.6004269  0.47047052 8.825345  ]]
[[ 0.585691  11.923454   1.5320861  0.368748   7.0281177]]
[[ 0.65955746 18.425323    1.5405077   0.3559228   4.921758  ]]
[[-1.7761732 13.378618   2.652569  -1.9308456  6.267743 ]]
[[-1.3281279 14.38482    2.2739067 -1.8555517  7.9703016]]
[[-1.3093207  9.393273   2.6324959 -1.868645   4.765024 ]]
[[-1.6960808 10.237009   2.653808  -2.3011968  7.1381865]]
[[-1.0930785 11.519799   2.9263852 -3.2006598  6.327852 ]]
[[-0.70320535 12.166987    2.5048637  -1.5465933   6.386262  ]]
[[-0.67171615  7.9987354   2.7392492  -2.234098    8.402832  ]]
[[-0.40377355  6.576999    2.749177   -1.662518    8.203221  ]]
[[-0.92265993  8.345756    2.780255   -1.7304264   8.497795  ]]
[[-0.6790948  8.950788   2.8890886 -1.6014429  4.7012424]]
[[-0.5928631  7.7620215  2.6905754 -2.0143416  8.713076 ]]
[[-1.099867   8.352925   2.689176  -2.3048744  7.621258 ]]
[[-1.4795719 11.661804   2.4908335 -2.0487547  9.132611 ]]
[[-1.0673041 12.275695   2.2256649 -1.8777822  5.246048 ]]
[[-0.8451934 12.153204   2.6738372 -2.066135   6.8190026]]
[[-0.9311945  7.9637885  2.7846518 -2.205329   9.281873 ]]
[[-0.6574828 11.27363    2.5648093 -2.0083969  5.3905735]]
[[-1.171203  11.75089    2.6537423 -1.518023   5.8405514]]
[[-4.043676 12.093862  3.516364 -8.275175  6.349974]]
[[-6.715829  15.450833   3.4521565 -8.22577    7.514007 ]]
[[-5.3903317 10.473283   3.7206907 -8.314636   7.6660495]]
[[-4.0033565  8.154421   3.6484346 -8.315663   5.596732 ]]
[[-5.5542254 12.133575   3.5576746 -7.7522683  7.0209146]]
[[-5.041886  12.48927    3.4138045 -7.95057    8.040886 ]]
[[-5.564324 13.72863   3.778233 -7.95057   6.562258]]
[[-5.28069   14.647247   3.3985956 -7.961048   5.621355 ]]
[[-4.9967184 10.3532295  3.4713614 -7.7837286  8.017286 ]]
[[-6.1785955 15.168128   3.5193083 -7.834043   5.6287737]]
[[-6.482681  18.412884   3.9174483 -8.928648   7.269394 ]]
[[-6.3862457 21.302784   3.7785752 -8.753478   6.9212236]]
[[-5.087873  9.981114  3.394649 -8.682379  9.878637]]
[[-5.3063025 13.472018   3.3597171 -8.358268   5.92428  ]]
[[-4.9805355  8.982106   3.298732  -7.8540864  8.704878 ]]
[[-6.2278967 13.413533   3.4521565 -8.26758    6.8141627]]
[[-5.3856993 11.461354   3.3275104 -8.551174  10.339296 ]]
[[-5.19815   13.239402   3.4617717 -8.675153   6.711258 ]]
[[-2.393859  10.848047   2.5698862 -3.885315   7.1301756]]
