[[-5.928872  14.592576  -3.3250337  4.8956223]]
[[-5.475908 10.015925 -3.032176  7.700009]]
[[-6.8860164 16.598394  -3.1993542  5.9507875]]
[[-5.168441   9.247515  -3.0708258  6.943492 ]]
[[-5.382355  10.863547  -3.0356975  6.3268366]]
[[-5.7837815 14.342194  -2.9886293  6.0620894]]
[[-4.9510765  9.163952  -2.9911308  9.399184 ]]
[[-6.3428683 12.847751  -2.9830682  5.1863666]]
[[-5.958203  14.050264  -3.05498    5.3482823]]
[[-5.7360034 10.528291  -3.0901833  9.076119 ]]
[[-5.2443457  7.9901075 -3.0032322  9.616495 ]]
[[-4.9485054 13.31361   -3.2402053  5.798598 ]]
[[-5.1753416 10.791419  -3.0320728  6.0982256]]
[[-5.7963824 13.202033  -2.8831136  8.077304 ]]
[[-5.554867   9.578028  -3.1534612  9.461116 ]]
[[-5.6513314 11.543188  -3.2174563  7.49652  ]]
[[-5.0718346  7.0191975 -2.8262427  8.000229 ]]
[[-6.1147995 13.458768  -3.0686018  7.945877 ]]
[[ 1.7156309  5.0950785 -0.7572552 10.19313  ]]
[[ 1.0924941 12.9781685 -1.0246085  4.6794505]]
[[ 1.5440587  15.382041   -0.68465704  6.4408116 ]]
[[ 1.6268928 12.9572735 -1.0465049  5.026367 ]]
[[ 1.3240923  8.390364  -1.3854623  9.411703 ]]
[[ 1.4834518  7.6872635 -1.5483485  8.2728405]]
[[ 1.2137355  8.344904  -1.2167286  6.5035715]]
[[ 1.7025338  11.699803   -0.78355944  7.016519  ]]
[[ 1.4529215   6.212916   -0.51192147  7.942058  ]]
[[ 0.9198812  9.739326  -0.7404372  3.4014785]]
[[ 1.2027704 11.598696  -0.9426177  5.0495863]]
[[ 1.6461293 13.538134  -0.8984975  4.416456 ]]
[[ 1.8076425  13.24366    -0.52053803  4.046186  ]]
[[ 1.5987144  9.170498  -0.6774438  4.7643714]]
[[ 1.5653325  7.7766323 -1.0995827  8.126946 ]]
[[ 1.3862839  8.891881  -1.4083091  8.279033 ]]
[[ 1.6611539  9.3636675 -0.6067761  5.267915 ]]
[[ 1.1819835  9.149888  -1.0755205  5.3655033]]
[[ 0.91125315 10.00503     0.13477561  6.016302  ]]
[[ 1.0357474   7.5964303  -0.27903044  8.862922  ]]
[[ 0.91583735  5.3451834   0.22170886 12.029405  ]]
[[ 0.77058566 10.212946   -0.20041934  5.756721  ]]
[[ 0.98835164  8.319839   -0.05682579 12.659339  ]]
[[0.50233954 9.544099   0.17391689 6.9440765 ]]
[[ 0.9102672   6.4124355  -0.14624046 10.411612  ]]
[[ 1.0302403   7.6948986  -0.39120474  7.9645166 ]]
[[ 0.8953491  7.7152786 -0.0524947  8.563466 ]]
[[ 0.11790279 10.705248   -0.3721543   6.7975454 ]]
[[ 0.4130773  12.681754   -0.38317448  4.854202  ]]
[[ 0.50605536  7.794491   -0.53606313  6.0703616 ]]
[[ 0.7032135  10.906792   -0.09318078  6.080033  ]]
[[ 0.91787076  7.0676756  -0.4393044   8.877296  ]]
[[ 0.75904447 10.200052   -0.08925439  8.802058  ]]
[[ 1.0488722   5.099228   -0.22689734 10.730085  ]]
[[ 1.0052768  12.129798   -0.08531277  8.104006  ]]
[[ 0.2935107 13.783797  -0.5370815  6.012791 ]]
[[-7.5029664 16.820726  -4.902248   5.2753706]]
[[-5.7173495 14.682321  -5.196543   7.144866 ]]
[[-5.7279286 11.300528  -4.802728   3.8240004]]
[[-6.960784  10.848255  -5.4892874  6.3767405]]
[[-5.5981965 13.948394  -5.8939347  5.4884686]]
[[-5.5402336 11.239435  -4.8027287  5.635339 ]]
[[-4.2246356  9.568347  -5.4562454  6.8377843]]
[[-4.253859   8.013417  -5.128743   6.8366027]]
[[-5.169742  10.004946  -5.0367975  7.5287323]]
[[-5.0872746 10.375415  -5.1661     3.7252414]]
[[-4.8096385  8.642495  -5.162217   7.45789  ]]
[[-6.5359697  9.6823435 -5.4704156  6.9194956]]
[[-5.8975434 13.241319  -5.2183795  8.280495 ]]
[[-6.1588483 13.1553135 -4.9400735  4.515597 ]]
[[-5.4955955 12.350296  -5.1584125  6.086713 ]]
[[-4.3634186  9.458748  -5.577082   7.1446314]]
[[-5.6237535 11.397232  -5.206678   4.6505046]]
[[-7.065473  14.089442  -5.0451627  5.315657 ]]
[[-4.4574227 13.289739  -7.3800364  6.375032 ]]
[[-5.611034  12.5311575 -7.517246   7.7969346]]
[[-5.5576043 11.973617  -7.622808   8.019175 ]]
[[-5.7853837 16.647623  -7.3689847  5.6864214]]
[[-5.010316  12.729343  -6.9487343  7.2926555]]
[[-5.1183534 11.912686  -7.244694   8.411276 ]]
[[-5.544019  14.2346735 -7.1862545  6.778687 ]]
[[-5.4329057 13.51439   -7.151192   5.6200433]]
[[-5.050379  11.508638  -7.032665   8.3341465]]
[[-4.7032456 10.676995  -6.977149   5.651362 ]]
[[-5.216025  15.250153  -8.001496   7.4437637]]
[[-6.295007 19.79936  -7.807035  6.890433]]
[[-5.2037954 10.17134   -7.7873125 10.327305 ]]
[[-5.5856028 12.2619    -7.37897    6.0176277]]
[[-4.855089  9.319048 -7.158703  9.105853]]
[[-5.733113  16.49349   -7.681432   7.1280465]]
[[-4.9521832  8.938518  -7.707792  10.501946 ]]
[[-6.1201153 14.96664   -7.773853   7.020401 ]]
[[-2.8809466 11.095782  -3.3651402  7.028545 ]]
