[[-0.76966435 13.988323    0.59933335]]
[[0.28975886 8.923229   0.8160013 ]]
[[-1.0659962  9.879301   0.6799969]]
[[0.9593395  7.5317373  0.77157784]]
[[-0.4326791  9.268704   0.590817 ]]
[[-1.899888   13.956955    0.59870946]]
[[0.49732876 8.392121   0.9798124 ]]
[[-4.7615695  9.616015   0.5076858]]
[[-0.25646627  7.679411    0.656469  ]]
[[-1.4382052  9.823138   0.8572211]]
[[0.9182547 6.2200055 1.113508 ]]
[[-3.5561552 13.578216   0.6532992]]
[[ 0.30891028 10.178777    0.5153783 ]]
[[-0.3541061  12.4524765   0.72204024]]
[[0.56685114 6.606098   1.0776985 ]]
[[1.0926591e-02 1.1595770e+01 7.1925426e-01]]
[[0.78830326 5.3100796  0.8517506 ]]
[[-0.36390668 11.548762    0.7606718 ]]
[[-1.2440779  4.5278068 -1.0107626]]
[[-4.237779  16.220837  -0.8138665]]
[[-3.92266   17.888735  -1.0547086]]
[[-4.3440237  13.216221   -0.86581457]]
[[-3.2299943  8.570641  -1.2042313]]
[[-2.215744   9.146674  -1.0967563]]
[[-3.3135679  8.765711  -0.9275893]]
[[-3.8470502 13.214282  -1.1274736]]
[[-1.2659672  6.1873474 -0.9347313]]
[[-4.33595   13.994569  -0.5827818]]
[[-3.9693532  9.7618885 -0.8184532]]
[[-2.8628988 12.374703  -0.7322741]]
[[-3.408777  11.897021  -0.7476347]]
[[-2.637771  10.221228  -0.8468268]]
[[-2.2341306  8.217163  -1.1464962]]
[[-2.6183293 10.245701  -1.1771449]]
[[-2.641865    7.7757154  -0.74265385]]
[[-3.2454672  11.24934    -0.91020226]]
[[-3.5228848  8.297606  -0.615826 ]]
[[-2.503703   6.201769  -0.9319079]]
[[-2.879766   3.856732  -1.3324952]]
[[-2.9597921  9.474408  -0.5889044]]
[[-3.0003803  6.6068115 -1.4159302]]
[[-3.6868796   9.570641   -0.70664215]]
[[-2.6248488  4.692621  -1.1521207]]
[[-2.707064    6.876131   -0.86175495]]
[[-2.9940698  8.143909  -0.8877957]]
[[-3.338155 11.728629 -0.613282]]
[[-3.6304119  11.793523   -0.44623286]]
[[-3.335507   5.935395  -0.6543967]]
[[-3.032954    5.7779293  -0.62181944]]
[[-2.9119887  5.5221653 -0.953999 ]]
[[-3.444204   6.8959045 -0.8562832]]
[[-2.6776412  4.039255  -1.183725 ]]
[[-3.149665 10.315582 -0.759352]]
[[-3.1250257  6.500312  -0.5436532]]
[[-4.5449142 14.806145   1.4178531]]
[[-4.0064244 15.176291   1.841235 ]]
[[-2.918387  10.0565605  1.1255593]]
[[-3.454454  10.619233   1.6522099]]
[[-3.9491403 13.582699   1.4559213]]
[[-3.2488122 12.13912    1.4721266]]
[[-1.7461476  8.194498   1.9703058]]
[[-1.8087894  7.061155   1.9675552]]
[[-3.0271733 10.255495   2.0164585]]
[[-2.73954   10.053668   1.1112484]]
[[-1.9472859  7.9555078  2.070889 ]]
[[-3.704817   8.584911   1.8288716]]
[[-3.9525416 13.832356   2.0984647]]
[[-2.589032  14.873464   1.2370338]]
[[-3.3774838 11.379571   1.5812008]]
[[-2.7432141  8.459169   2.1691768]]
[[-2.1760762 12.937101   1.2361004]]
[[-4.6784296 11.906671   1.3707979]]
[[-3.5342093 12.3213005 -1.1767213]]
[[-3.5186882  9.426551  -1.4025782]]
[[-3.5599535  7.8739147 -1.4307842]]
[[-2.328494   6.0995245 -1.0336672]]
[[-2.5760896  8.932911  -1.3104467]]
[[-2.3258617  9.521853  -1.5013849]]
[[-2.9157066  9.206756  -1.2233257]]
[[-0.92647344  7.6422787  -1.0359577 ]]
[[-2.3361905  6.131039  -1.4956987]]
[[-2.3641627 10.167508  -1.0469071]]
[[-2.1800776  7.3128023 -1.34815  ]]
[[-1.5709593  9.432661  -1.2739836]]
[[-2.276178   7.9520216 -1.962281 ]]
[[-2.2849464 11.162213  -1.1012819]]
[[-2.0830932  6.2090755 -1.6289768]]
[[-2.7800558  9.146906  -1.2693121]]
[[-2.4826956  8.648737  -2.035688 ]]
[[-3.2654805  7.5232325 -1.2509761]]
[[-2.4842374   9.542654   -0.14778234]]
