[[ 1.5202153 -2.9609249  9.92887    2.3159056 -2.664948   3.9313376]]
[[ 1.3351673 -1.9061108  7.837097   1.7899352 -2.0603447  5.468041 ]]
[[ 1.0597637 -2.885729  12.815524   2.8143377 -2.4787712  4.5400443]]
[[ 1.1026305 -1.5448872  6.532286   2.2345593 -2.2658134  4.9770074]]
[[-0.09192096 -1.9908564   6.7845383   2.1937227  -2.1910536   4.8195415 ]]
[[ 0.55690646 -2.137177    7.6576924   2.5984967  -2.2852168   4.7991858 ]]
[[ 0.7824136 -1.7624693  7.531414   2.0706437 -2.1122208  7.9444766]]
[[ 1.1973023 -1.7314714  8.381654   2.2004578 -2.1390464  3.4555564]]
[[ 1.3847523 -2.6736734 11.793003   2.4314277 -2.1167717  3.7192967]]
[[ 0.76734096 -2.25317     9.450842    2.163185   -2.3035145   7.5675087 ]]
[[ 1.1591676 -1.4681585  5.684573   2.1024437 -2.070269   6.984044 ]]
[[ 1.1023207 -1.9105569  8.932224   2.0066469 -2.556264   4.1635084]]
[[ 0.40488014 -1.770564    7.5882187   2.1523852  -2.1466007   4.503538  ]]
[[ 0.8507948 -2.0746527  8.454841   1.8028258 -2.0160265  6.0556903]]
[[ 1.1906519 -1.5339569  6.6478896  1.9223791 -2.2702823  6.641359 ]]
[[ 1.0817409 -1.9967777  7.978487   2.0626683 -2.468536   5.5023975]]
[[ 1.1372919 -1.548114   4.8812075  1.809062  -1.9128307  5.6846204]]
[[ 0.9198911 -2.321538   8.771449   2.1896467 -2.2578683  6.154138 ]]
[[ 1.0910743 -2.5148747  5.422905   1.9082812 -4.2970033 10.704643 ]]
[[ 1.0390272 -3.654736  14.713925   1.9063841 -3.8839676  6.0947733]]
[[ 0.9762616 -3.5979092 12.511914   1.6760578 -3.6472359  8.068922 ]]
[[ 1.0958499 -3.1037278 12.515103   1.6527207 -3.7766984  6.3809915]]
[[ 0.81980056 -2.965403    9.624289    1.6702759  -4.021674   10.20581   ]]
[[ 0.7490524 -2.5339901  8.490038   1.688035  -3.5808558  9.856201 ]]
[[ 1.1493781 -2.8656743 10.348763   1.5250795 -3.7012844  7.905669 ]]
[[ 0.84189117 -2.9507527  11.619136    1.7173487  -4.041939    8.591014  ]]
[[ 1.0045441 -2.4295409  6.5756516  1.5738034 -3.415994   9.271714 ]]
[[ 0.9433879 -2.4458961 11.95948    1.8779486 -3.7322047  4.5688615]]
[[ 0.69317234 -3.033889    9.853896    2.015825   -4.05432     6.532921  ]]
[[ 0.8714237 -2.8044446 13.2826605  2.0389361 -3.9152522  5.894697 ]]
[[ 1.0875076 -2.6071522 11.332558   1.8012863 -4.1385245  5.529672 ]]
[[ 0.963833  -2.7839658  9.621577   1.750442  -3.8224912  6.3025036]]
[[-1.090529  -2.6494558  8.132079   1.7654877 -3.9625168  9.677582 ]]
[[ 1.0595984 -2.759289   9.730498   1.7849178 -3.8366785  9.687062 ]]
[[ 0.31218725 -3.368443    9.611863    1.5352143  -3.6103833   6.9510045 ]]
[[ 0.9622033 -2.945307  11.523365   1.6586208 -4.1146207  7.0256705]]
[[-0.09561635  0.69925016  8.585914    0.38183263 -0.7220688   4.2015877 ]]
[[-0.33332425  1.2243989   7.200837    0.39050457 -0.73808813  6.5199833 ]]
[[-0.3596119   1.1857678   4.930395    0.31768742 -0.6450447   9.037918  ]]
[[-0.1217567   1.103643   11.343283    0.41696608 -0.72913605  3.6937304 ]]
[[-0.09970138  1.2197462   7.3802214   0.31851417 -0.6654278   9.6444845 ]]
[[-0.41666982  0.970788   11.599539    0.31866333 -0.70930135  4.751149  ]]
[[-0.28399405  1.1831412   5.9015665   0.3214052  -0.6564584   8.0582905 ]]
[[-0.32922643  1.2416229   7.0618014   0.38667336 -0.75406754  5.664381  ]]
[[-0.27081618  0.93281037  8.488729    0.30682418 -0.72228503  6.2102323 ]]
[[-0.14456381  0.20252256 12.863607    0.43877006 -0.82020265  5.1083393 ]]
[[-0.04905843  0.29526904 13.03114     0.4168703  -0.84919703  3.0900636 ]]
[[-0.09976322  0.7728104   7.531986    0.38598236 -0.77805114  4.2762446 ]]
[[-0.26856494  1.2221881  10.485801    0.31309786 -0.68040854  3.8585052 ]]
[[-0.2078297   1.1032118   6.3894134   0.33441007 -0.70732963  6.4462376 ]]
[[-0.02686421  0.7401089   9.218091    0.35129496 -0.74556804  6.4467273 ]]
[[-0.13711198  1.2410833   4.700199    0.39184165 -0.7325096   8.532979  ]]
[[-0.17320786  0.5801875  10.526091    0.39111474 -0.7930437   6.035644  ]]
[[-0.08968755 -0.1391258  10.102292    0.36762372 -0.79410356  4.073544  ]]
[[ 0.44997162 -2.248177   12.833212    1.853297   -2.98029     7.1705475 ]]
[[ 0.18767776 -2.441628   12.194298    1.4619596  -3.4700313   9.317489  ]]
[[ 0.49050152 -2.181696    9.746933    1.7668753  -3.2003164   5.735422  ]]
[[ 0.31364524 -2.734811   10.256676    1.6090736  -3.6194463   8.185846  ]]
[[ 0.47773948 -1.4931026  10.885189    2.1700683  -4.423074    7.3198853 ]]
[[ 0.36524114 -1.8453453  10.792556    1.6496916  -3.181649    7.452358  ]]
[[ 0.4288465 -1.423387   8.000827   1.6659849 -3.6611447  9.571383 ]]
[[-0.1850574 -1.3358165  6.886805   1.5684552 -3.1379433  9.314685 ]]
[[ 0.4077755 -2.1137664  6.9265566  1.6757678 -3.5396788  9.7117405]]
[[ 0.279461  -1.7572999  9.37635    1.9705306 -3.6289215  5.849973 ]]
[[ 0.41251063 -1.6209818   7.23143     1.5542856  -3.2204494   9.639437  ]]
[[ 0.3549969 -2.3596194  8.389217   1.681533  -3.412779   8.972394 ]]
[[ 0.3615581 -2.3507571 12.539458   1.5846425 -3.519501  10.431305 ]]
[[ 0.27767786 -1.8317735  12.31456     1.5229719  -2.8428264   6.3607674 ]]
[[ 0.35250372 -2.053121    9.428022    1.6313272  -3.7496727   7.991785  ]]
[[ 0.2820642 -1.7336396  8.230688   1.5542489 -3.6207874 10.072098 ]]
[[ 0.30435595 -1.7918698  10.353589    1.6292478  -3.7058542   6.328209  ]]
[[ 0.3333825 -1.7808274 11.60576    1.8939086 -3.4549253  6.8640323]]
[[ 0.87029654  0.11044687 11.652505    2.313122   -3.4546432   4.9130073 ]]
[[ 0.9946246  0.3619078 10.214227   2.2972882 -3.3131833  5.965832 ]]
[[ 0.62164044  0.4656407   9.70533     2.4683738  -3.266643    6.0928845 ]]
[[ 1.0940747  0.2531685 10.674703   2.3799849 -3.4158533  4.1592255]]
[[ 1.0507128   0.91033816 10.642074    2.3627636  -3.1451116   5.561834  ]]
[[ 0.7459684  0.9757918 10.039766   2.2619958 -3.151811   6.438814 ]]
[[ 0.8806616  0.4675902 10.493444   2.5229583 -3.365943   5.1328177]]
[[ 0.6216404   0.61016464 16.246765    2.2235277  -3.0595512   4.177239  ]]
[[ 0.9095234  0.9228397  8.569466   2.328475  -3.4459808  6.6819253]]
[[ 1.2065886   0.87967783 13.489103    2.3303487  -2.9307256   4.1981287 ]]
[[ 1.375997   0.9754464 14.783576   2.615284  -3.3166566  5.5347652]]
[[ 0.97844124  0.21308056 11.987221    2.489431   -4.025176    5.49426   ]]
[[ 0.9382143  1.0010921  8.733939   2.2528775 -3.5673907  8.561629 ]]
[[ 0.7459684  0.5109168 10.606194   2.221848  -3.5417676  4.509842 ]]
[[ 1.0353804  1.1172539  7.0921183  2.183384  -3.05788    7.101287 ]]
[[ 1.1435516   0.81152546 11.497541    2.2824843  -3.3433928   5.238314  ]]
[[ 0.9860954   0.99110997 10.221167    2.2019303  -3.351266    8.805904  ]]
[[ 1.0882097   0.49998897 10.63739     2.2872763  -3.6059523   5.234483  ]]
[[ 0.5745115 -1.0636162  9.634903   1.660274  -2.731562   6.576696 ]]
