[[-7.6908674 13.843156 ]]
[[-6.5288773  6.571577 ]]
[[-8.028126 12.444889]]
[[-6.053607  6.470294]]
[[-6.3273425  8.351966 ]]
[[-7.2705293 14.476596 ]]
[[-5.792802  7.330352]]
[[-8.0171   11.405968]]
[[-6.2678013 11.276589 ]]
[[-6.737039   7.3292766]]
[[-6.1359315  5.8852153]]
[[-9.064942 11.677518]]
[[-6.055196  8.804814]]
[[-6.799063 10.085736]]
[[-6.5128717  8.020853 ]]
[[-7.2634344 10.757516 ]]
[[-5.9340944  4.451638 ]]
[[-7.0534315 10.325373 ]]
[[-6.8874145  3.4414737]]
[[-8.663824  11.4753895]]
[[-8.713464 12.468956]]
[[-8.381861 12.158788]]
[[-7.833281  9.572224]]
[[-7.0851955  6.5150175]]
[[-7.535302   7.4522476]]
[[-7.6320004 10.090309 ]]
[[-6.7322927  4.766006 ]]
[[-7.130785 10.231268]]
[[-7.257965  9.702069]]
[[-8.87501  12.320263]]
[[-7.44894   8.426115]]
[[-7.410952   6.7599916]]
[[-7.166634  6.392363]]
[[-7.4561954  9.453727 ]]
[[-8.283513  9.0931  ]]
[[-7.690182  9.359407]]
[[-5.1836367  9.07803  ]]
[[-4.1629543  6.4409285]]
[[-4.3268957  4.553103 ]]
[[-4.9429235  8.202877 ]]
[[-4.7541933  7.2288337]]
[[-4.39071  7.10597]]
[[-4.2661333  4.6779504]]
[[-4.198417  6.671728]]
[[-4.6547365  6.431936 ]]
[[-3.6019108  7.075598 ]]
[[-4.1064134 11.461652 ]]
[[-5.07158    7.3489094]]
[[-4.6476216  6.5800343]]
[[-4.41979    6.0812774]]
[[-5.142602  9.747443]]
[[-4.2371125  4.132838 ]]
[[-4.728514 12.078425]]
[[-4.247962 11.330576]]
[[-1.3817711  7.689344 ]]
[[-0.21809371 12.103328  ]]
[[-0.24491042  9.961739  ]]
[[-1.314439  9.630544]]
[[-0.92307353 10.797595  ]]
[[-0.419489 11.264616]]
[[1.2378497 7.8900943]]
[[0.9938405 6.2992496]]
[[-1.5252104  7.930008 ]]
[[0.6581114 8.513475 ]]
[[0.41653123 7.557507  ]]
[[-0.7297946  8.135375 ]]
[[-0.78163993 11.828662  ]]
[[ 0.8666898 13.084508 ]]
[[-0.3681878 10.493305 ]]
[[0.2972741 7.3273277]]
[[ 0.43764353 10.563182  ]]
[[ 0.15489264 14.346237  ]]
[[-4.947466 10.788422]]
[[-5.4923253 10.132063 ]]
[[-6.208525  8.711581]]
[[-6.8243384 13.565787 ]]
[[-5.7792826  9.062838 ]]
[[-5.118977  9.26357 ]]
[[-5.690562  9.346363]]
[[-5.737466  9.110842]]
[[-5.0825605 10.199957 ]]
[[-5.6743665  6.46706  ]]
[[-6.238221 11.864988]]
[[-5.7604585  9.605928 ]]
[[-5.184875   7.6089377]]
[[-5.811139  9.885936]]
[[-4.887233  5.918167]]
[[-5.8410034 11.947154 ]]
[[-5.362141  6.966327]]
[[-6.3813   10.844479]]
[[-4.9740896  9.023584 ]]
