[[-1.9008161 11.574948   0.6557203]]
[[-0.36641622 10.935276    0.81684035]]
[[-0.81139934 13.034614    0.6541867 ]]
[[0.43369943 6.108653   1.123544  ]]
[[-0.8154027  8.677229   0.9753861]]
[[-1.2420856   8.155926    0.84070486]]
[[0.01936064 9.138589   0.8680592 ]]
[[0.7211014 7.263299  0.9075921]]
[[-0.58389103  5.6568727   0.84745246]]
[[-1.5695404  8.372258   0.8523832]]
[[-0.46983632  8.100188    0.7752889 ]]
[[ 0.24912764 14.127287    0.5735417 ]]
[[-3.2516403 10.407805   0.792133 ]]
[[ 0.283942  10.726293   0.9113168]]
[[ 1.2929372  10.446995    0.95129454]]
[[-0.31126758  5.6740384   1.0382838 ]]
[[-1.2925938  5.5890856  1.1106447]]
[[-1.3318573  8.437368   0.7033774]]
[[0.28220573 7.9012365  0.79200566]]
[[-0.6506874  7.9233656  1.00571  ]]
[[-3.12551    12.012893   -0.77059025]]
[[-2.769099 13.005665 -1.009881]]
[[-3.4308648  9.299597  -0.8072666]]
[[-2.5205355  7.601817  -1.0569179]]
[[-2.3992755  9.4205    -1.1020253]]
[[ 0.6037463  7.44723   -0.5577585]]
[[-1.231377  10.369405  -0.6962034]]
[[-2.361387    7.837362   -0.68691033]]
[[-2.3750284   8.039135   -0.67979836]]
[[-3.6145973   9.0524     -0.85632676]]
[[-3.472744    8.053281   -0.69480616]]
[[-2.4854054  18.571192   -0.67267275]]
[[-2.2213638  8.636304  -0.7925915]]
[[-2.8187149  10.526286   -0.91149634]]
[[-2.198153   6.666584  -0.8556686]]
[[-2.226513   6.192884  -0.8666507]]
[[-1.7859114  8.053762  -1.0277551]]
[[-0.6974546  12.665325   -0.69867265]]
[[-3.830369   10.610892   -0.87198925]]
[[-2.7288432  7.6322656 -1.1449804]]
[[-3.386033    8.284172   -0.70603895]]
[[-4.057953   7.328979  -0.9489694]]
[[-3.6432238   6.4426117  -0.66322505]]
[[-4.309777   6.8814344 -1.170506 ]]
[[-3.3355324  6.7771034 -1.0772364]]
[[-2.9937735  6.8040867 -0.5935767]]
[[-3.7072785  9.500028  -0.8693668]]
[[-4.744733   6.027942  -0.7867438]]
[[-4.354548  15.745811  -0.6567155]]
[[-4.4627295  10.232182   -0.86969584]]
[[-4.7575054   6.2867627  -0.67648363]]
[[-2.8523643  10.271285   -0.45525837]]
[[-4.6615386  9.64189   -0.8415688]]
[[-3.3109138  7.0854383 -0.8376289]]
[[-3.4241118  8.414309  -0.7229023]]
[[-3.650742   4.6452136 -1.052263 ]]
[[-4.4639764  6.353696  -1.1365999]]
[[-3.5106862  10.206426   -0.57979447]]
[[-3.4607024   8.617502   -0.85877454]]
[[-3.3971677  7.429164  -1.150815 ]]
[[-4.551125  13.026782   1.5444595]]
[[-4.523281  10.660591   1.8965338]]
[[-3.5448031 12.293032   1.4090753]]
[[-2.424352   7.5547333  2.2133029]]
[[-2.231347   9.121196   2.0869613]]
[[-4.6903057 14.698624   1.3867002]]
[[-3.048217 12.328808  1.756503]]
[[-4.3847485  9.378689   1.6591265]]
[[-4.319059  13.779589   1.3814785]]
[[-3.35942  13.241044  1.70504 ]]
[[-5.152937 11.332912  1.465202]]
[[-5.7258253 18.136457   1.0556772]]
[[-4.8480577 11.00838    1.7353674]]
[[-3.1060503 10.073304   1.7983783]]
[[-2.8578184 11.996939   1.7225711]]
[[-2.9700496  8.553573   2.1127367]]
[[-2.8402424  7.857575   2.211418 ]]
[[-3.5977356 17.029255   1.3047348]]
[[-3.0425167 10.750233   1.6713398]]
[[-2.7496147  9.62572    2.2615266]]
[[-3.173207  11.184335  -1.4255077]]
[[-3.0575252 10.551821  -1.7555594]]
[[-1.819926  9.381044 -1.298199]]
[[-2.9003243  6.4675875 -2.0570564]]
[[-2.2105818  7.6582828 -1.9378066]]
[[-2.2106543 10.1205845 -1.2507646]]
[[-3.0085392  9.848327  -1.6067833]]
[[-3.8464568  5.8452826 -1.5139543]]
[[-2.09264    9.39486   -1.2702228]]
[[-3.2607076  9.093759  -1.6057543]]
[[-3.8818471  9.365672  -1.3669883]]
[[-0.6789179   9.676146   -0.99954474]]
[[-3.0433822  7.421468  -1.6012268]]
[[-2.7023942  9.138593  -1.6652266]]
[[-3.6213408 14.487089  -1.5654763]]
[[-2.994844   6.2456017 -1.9361553]]
[[-3.688046  7.300751 -2.026133]]
[[-3.1418908 11.916456  -1.1974633]]
[[-2.7899885  8.349171  -1.5457864]]
[[-2.4987159  6.4678206 -2.0828671]]
