[[-5.6646857 11.531913   2.7552135 -5.969185   7.4559436]]
[[-6.1360054 11.972881   2.8691978 -5.646117   9.572956 ]]
[[-4.2474885  7.0234046  2.8790984 -5.949123   6.5656314]]
[[-5.8298597  7.766668   2.7526908 -5.7404833 10.164783 ]]
[[-4.821543  8.62606   2.955104 -6.162919  9.649608]]
[[-5.1174355 13.61403    2.886099  -5.749674   6.366516 ]]
[[-5.102754  10.280837   2.6668746 -5.899763   8.260151 ]]
[[-6.8012304 10.814216   2.5049953 -5.9585247  8.069168 ]]
[[-6.4836082 14.627305   2.756911  -6.3430953  6.3828583]]
[[-5.1979146 11.120715   2.5844681 -6.384194   8.832359 ]]
[[-5.346014   8.623562   2.7214594 -5.8250732  6.975908 ]]
[[-3.2009685 10.6074915  2.8418117 -6.2697644  4.817244 ]]
[[-6.27214   11.318626   2.6720774 -5.767949   8.674608 ]]
[[-5.159636   8.666656   2.4490004 -5.451992   9.034652 ]]
[[-2.9434164 10.201515   2.6722662 -5.6873116  7.7084045]]
[[-5.9612436  8.949282   3.1023293 -6.0820546  9.661713 ]]
[[-5.917275   8.204374   2.9071083 -5.602429   9.573804 ]]
[[-4.592589  12.258827   3.2188478 -5.8371377  5.8936095]]
[[-4.874112   9.60051    2.591338  -5.8150635  8.20352  ]]
[[-4.8117294  8.472765   2.7034276 -5.862192   9.742387 ]]
[[-2.4247391 13.391083   2.2902617 -3.8567708  6.232014 ]]
[[-2.0546908 12.181126   2.3560433 -4.104698   8.004985 ]]
[[-1.5036336  8.924333   2.263242  -3.967144   5.6270595]]
[[-1.865741   8.854845   1.9972057 -3.6768203  9.149736 ]]
[[-1.7795358  9.737257   2.1568532 -4.801308   8.488577 ]]
[[-0.90053535 13.028753    2.3722916  -3.2714376   5.225977  ]]
[[-1.560968  10.785293   2.0717783 -4.164983   6.963473 ]]
[[-0.75330347 11.648486    2.1617005  -3.8090749   6.351885  ]]
[[-1.62832   10.401394   2.3858793 -4.316644   5.366585 ]]
[[-3.1754436 12.048734   2.2968943 -4.965202   7.356945 ]]
[[-0.6727936  9.351155   2.2822948 -3.6421642  5.7097   ]]
[[-1.6088814 11.571472   2.2836306 -4.0401235  4.23738  ]]
[[-1.050638  12.369146   2.2549515 -3.6617627  6.8584685]]
[[-2.046133  10.3391905  1.9716631 -3.6432712  7.529714 ]]
[[-2.3838863 14.045255   1.9927338 -3.4703991  6.843602 ]]
[[-1.8165733  7.8795495  2.2329016 -4.084328   8.534139 ]]
[[-1.4770186  9.345858   1.9116734 -3.2165825  8.708377 ]]
[[ 0.08057487 14.577893    2.539299   -3.45946     4.980191  ]]
[[-1.9312835  9.622701   2.108773  -4.404068   6.995537 ]]
[[-1.7532202  9.3503475  1.8345705 -3.755511   9.324887 ]]
[[ 0.6123987 12.291302   1.6488913  0.3798808  6.464138 ]]
[[0.26471958 9.4434395  1.5278141  0.36649275 7.885866  ]]
[[ 0.91869223 12.914188    1.6307604   0.40244097  5.492368  ]]
[[1.3759248  6.5505843  1.5371288  0.40913662 8.575964  ]]
[[1.4555607  7.7353363  1.5698427  0.44962257 8.311163  ]]
[[-0.19732237 14.655559    1.6864059   0.34363654  5.672892  ]]
[[-0.15526278  7.69169     1.5729035   0.37447914  7.5174975 ]]
[[0.40453953 9.041428   1.6462343  0.4274453  6.718363  ]]
[[ 0.8746353  15.486494    1.6051012   0.41853613  5.330535  ]]
[[ 0.8125594  10.663997    1.6096472   0.42804316  7.231743  ]]
[[0.7931772  9.423017   1.6237003  0.39316908 5.874119  ]]
[[ 0.56410396 16.924404    1.6041267   0.3655135   4.271861  ]]
[[ 0.7048719  11.623802    1.4913816   0.38466418  7.0512404 ]]
[[0.78242713 8.745646   1.5741382  0.382172   7.4078426 ]]
[[-0.8938983  10.836197    1.5877173   0.33984405  7.3155255 ]]
[[1.164901   7.6425457  1.6824371  0.42590758 8.636481  ]]
[[0.8183028  7.0170794  1.4821634  0.39010864 8.879564  ]]
[[-0.7085951 10.988288   1.6793396  0.3454703  5.3245306]]
[[0.46048176 7.951092   1.7040744  0.40312487 6.8864784 ]]
[[1.2473258  8.7313595  1.5820937  0.42401972 9.309871  ]]
[[-1.4217933 13.555314   2.5776193 -2.255715   6.679256 ]]
[[-1.5915673  9.0995035  2.8186836 -2.6282544  8.433703 ]]
[[-1.5663482 11.111135   2.529376  -2.504619   6.058569 ]]
[[-1.5093462  7.1818647  2.4376125 -1.8703444  9.278051 ]]
[[-0.8731812  8.40235    2.6310554 -2.4175944  8.785284 ]]
[[-0.19398291 13.133006    2.4660182  -2.4496524   5.8339167 ]]
[[-1.0216364  6.946114   2.4603517 -2.53688    7.4762816]]
[[-1.198444   9.913179   2.4313204 -2.3916476  6.7887073]]
[[-0.9498081  8.299551   2.4946253 -2.5033112  5.818036 ]]
[[-1.6730555  9.842059   2.550433  -2.5396805  7.4040217]]
[[-1.7338024 11.29557    2.5163612 -1.892671   6.097712 ]]
[[-1.9421252 16.236414   2.308181  -2.5311024  4.634092 ]]
[[-1.3205911 11.068335   2.6216471 -1.9844732  7.3507004]]
[[-2.0151045  8.3516     2.343826  -1.952292   7.7073975]]
[[-1.18237585e-02  1.24848375e+01  2.21714401e+00 -1.62159860e+00
   7.30853271e+00]]
[[-1.5536293  7.9971313  2.6685197 -2.4047904  8.865263 ]]
[[-1.481601   7.7082376  2.3608365 -1.8657354  9.299112 ]]
[[ 0.02114747  8.51652     2.7611556  -2.1577783   5.548455  ]]
[[-0.8958184  9.719388   2.496243  -2.76186    7.104496 ]]
[[-0.9859002  8.047221   2.2077174 -1.744536   9.472783 ]]
[[-4.7293763 12.866258   3.461769  -8.759182   7.641047 ]]
[[-5.743615  11.757023   3.7686296 -8.387024   9.39212  ]]
[[-5.517865  11.107345   3.4111435 -8.742454   7.0118027]]
[[-6.044528   8.865088   3.260379  -8.620523   9.8352165]]
[[-4.971941   9.488501   3.5097034 -9.048057   9.97149  ]]
[[-5.630537  11.036842   3.3985329 -8.246929   6.890771 ]]
[[-5.674318  10.68732    3.2795563 -8.678586   8.596177 ]]
[[-6.3148375 12.405529   3.2411919 -8.911168   8.118612 ]]
[[-4.240588  10.722069   3.3857737 -9.290955   6.8671227]]
[[-5.720815  13.641955   3.3946283 -9.438466   8.596177 ]]
[[-5.2443604 10.378871   3.3466961 -8.488713   7.3226705]]
[[-3.851609  13.996558   3.2031217 -9.06124    5.4455686]]
[[-5.907399  12.268358   3.5097022 -8.54402    8.596178 ]]
[[-5.830223  11.516853   3.1452982 -7.9444733  8.914555 ]]
[[-4.6646724 15.662295   3.0257816 -8.151989   8.464127 ]]
[[-5.200946  8.338586  3.586434 -8.820641  9.896338]]
[[-5.100833   7.5739856  3.1452982 -7.9018517  9.813978 ]]
[[-4.5323467 14.860182   3.787901  -8.404605   6.560317 ]]
[[-5.071174  10.728229   3.3466907 -8.501646   8.277801 ]]
[[-5.383878 10.447375  2.98228  -8.464169 10.487635]]
