[[-6.4253044  8.493099 ]]
[[-6.479247  5.999499]]
[[-7.5377564 10.875697 ]]
[[-7.685481  6.435018]]
[[-6.501621   7.5978565]]
[[-9.159404 12.711304]]
[[-7.455143 10.429972]]
[[-7.45223   7.716535]]
[[-5.7020254  5.974684 ]]
[[-7.228167 11.059921]]
[[-8.01192    7.9136047]]
[[-7.655902 13.368623]]
[[-8.302368 10.528485]]
[[-6.843374  7.391676]]
[[-7.9889784 17.164583 ]]
[[-7.203371  6.781686]]
[[-7.547489  6.811985]]
[[-3.742384   6.2741284]]
[[-6.4472246  8.84626  ]]
[[-6.5862336  7.485196 ]]
[[-9.422938 14.248895]]
[[-7.737354   8.6270275]]
[[-6.436378   6.5816154]]
[[-8.860566   6.7490287]]
[[-7.673366  7.771902]]
[[-5.448262  7.918642]]
[[-7.3628387  8.460307 ]]
[[-9.843438  8.843281]]
[[-6.681036   7.3658304]]
[[-9.839484 10.010146]]
[[-8.746924  9.064449]]
[[-6.581769 13.675242]]
[[-9.340986  8.796374]]
[[-7.6813083  5.7830043]]
[[-6.6961746 10.155659 ]]
[[-8.04676  6.78279]]
[[-8.656344   7.6216426]]
[[-8.723244 11.825333]]
[[-7.4982243  8.20472  ]]
[[-7.682756  6.985672]]
[[-5.5722356  5.2088284]]
[[-5.6674376  7.8245683]]
[[-4.256917   6.2387676]]
[[-5.7917256  6.2222204]]
[[-4.998692   7.8518925]]
[[-3.9466662 11.665469 ]]
[[-5.3182926  7.897927 ]]
[[-7.1177106  6.8082976]]
[[-5.7898245 10.367427 ]]
[[-6.2250285  9.347878 ]]
[[-7.0566773  8.466062 ]]
[[-5.0546355 11.141584 ]]
[[-6.4193053  5.523035 ]]
[[-5.084614  6.808   ]]
[[-2.1476636  9.817734 ]]
[[-5.864674   5.5009046]]
[[-5.9022937  5.811428 ]]
[[-6.7558494 11.941086 ]]
[[-5.1431956  6.5373616]]
[[-5.2528486  6.318045 ]]
[[-2.6370385 11.423438 ]]
[[-0.44684613  9.984642  ]]
[[-1.1006329  9.731774 ]]
[[-2.0267558  7.3481407]]
[[0.34828752 8.386222  ]]
[[ 0.75046986 12.981166  ]]
[[0.35251674 8.594215  ]]
[[-0.32030967  9.019823  ]]
[[-2.0626097  9.811681 ]]
[[-2.992327 10.846085]]
[[-3.537748 11.586978]]
[[-1.0905571 12.029502 ]]
[[-0.82843465 12.579653  ]]
[[-1.0112519  9.311606 ]]
[[-0.9418486 10.573301 ]]
[[-0.817596   7.2766438]]
[[-0.689623  6.841418]]
[[-0.99876785 13.145258  ]]
[[0.33501017 8.766269  ]]
[[0.58555955 8.52685   ]]
[[-4.628452  8.634594]]
[[-4.955558  9.92855 ]]
[[-4.9488406  6.6512766]]
[[-6.2154922  5.9192915]]
[[-5.189828   7.5707016]]
[[-6.653256  8.975277]]
[[-6.562342  9.987241]]
[[-6.161717   6.2816834]]
[[-5.1225023  5.5716295]]
[[-5.8824997  8.537681 ]]
[[-6.5710073  8.956176 ]]
[[-5.770382 10.565779]]
[[-6.9774055 11.4055395]]
[[-5.942011  9.522727]]
[[-5.9004793  8.259888 ]]
[[-6.21245   6.944642]]
[[-5.3178964  5.8855977]]
[[-3.9380193  7.7974143]]
[[-5.036289   7.8056507]]
[[-5.5042243  7.6398215]]
