[[-6.5072956 14.969779  -3.2184045  6.732696 ]]
[[-6.380968  12.700553  -3.0700545  8.275604 ]]
[[-4.647086   9.685892  -3.1753607  6.171638 ]]
[[-6.569233  8.556736 -3.02914   9.547068]]
[[-5.5109487  9.109852  -3.2920384  9.082866 ]]
[[-4.832176  11.758267  -3.0290773  6.0313725]]
[[-4.6748834  9.009061  -3.1866033  7.5742836]]
[[-6.401874  10.190085  -3.2200553  7.153489 ]]
[[-5.591547  12.045957  -3.353332   6.0313725]]
[[-5.9217587 12.950437  -3.4817696  7.5742836]]
[[-7.1868424 11.873852  -3.101801   6.452167 ]]
[[-4.894898  15.959783  -3.2764313  4.768993 ]]
[[-5.565504  14.287984  -3.2029393  7.5742846]]
[[-5.3232503  8.640565  -2.932848   7.854812 ]]
[[-6.5141163 17.43595   -2.9871922  7.4340177]]
[[-6.4720745  9.099349  -3.2150993  8.945555 ]]
[[-6.109197   7.936408  -2.9077263  9.307124 ]]
[[-6.251892  16.892391  -3.0750027  5.7508435]]
[[-5.753958  10.162394  -3.1643047  7.293754 ]]
[[-5.6019278  9.819796  -3.0589516  9.618887 ]]
[[ 1.293853  11.767375  -1.4778894  6.0122705]]
[[ 1.6639618 13.168741  -0.5476283  7.220892 ]]
[[ 0.9150104 10.614199  -1.8527222  5.5665655]]
[[ 0.59421486  7.8512435  -1.0027162   8.952659  ]]
[[ 1.1926727  7.9739075 -2.1146266  8.945585 ]]
[[ 2.2922776  9.992189  -0.8652886  5.0262933]]
[[ 1.050495   9.885769  -1.1973808  6.7107873]]
[[ 0.468621   8.747307  -1.7995783  6.629898 ]]
[[ 1.1169806 13.005246  -1.4476635  5.023337 ]]
[[ 0.46785   9.424124 -2.323298  6.82622 ]]
[[ 1.2511741 10.552149  -0.7761493  5.231374 ]]
[[ 2.103228  10.106217  -1.3933716  3.7564316]]
[[ 1.338903  12.521668  -0.861366   6.3942122]]
[[ 1.2977551 10.561318  -0.8833011  6.9529834]]
[[ 2.1804655  16.460114   -0.76470757  6.342422  ]]
[[ 1.1594216  7.904661  -1.516023   8.396612 ]]
[[ 1.3946902   7.6230397  -0.75275993  8.502043  ]]
[[ 1.2676324 10.609496  -1.1281408  4.8409023]]
[[ 1.424085   9.430082  -1.0335993  6.2142096]]
[[ 0.9479703  8.3077545 -1.8413414  9.066557 ]]
[[ 0.48456594 11.195796   -0.29299724  7.5172563 ]]
[[ 0.95760334 12.7124195  -0.12906244  9.007021  ]]
[[0.6755667  9.091219   0.02124709 6.905376  ]]
[[ 0.22472306  7.447084   -0.5693762  10.367248  ]]
[[ 0.5730604   8.310669   -0.40906477  9.971148  ]]
[[ 1.8161405  16.721441    0.02592557  6.54397   ]]
[[ 0.6338377 10.39029   -0.4263725  8.454829 ]]
[[ 3.9091647e-01  9.0878620e+00 -1.4353858e-03  7.8708301e+00]]
[[-0.22975175 10.49661    -0.26640508  6.7134657 ]]
[[ 0.33050707 10.43682    -0.51988703  8.356755  ]]
[[5.472127e-01 9.514905e+00 8.825575e-03 7.287861e+00]]
[[ 0.7441627  14.455287   -0.03345891  5.2310143 ]]
[[ 0.7476284  12.044149   -0.11596799  8.517981  ]]
[[ 0.79063296  9.430547   -0.04556311  8.737974  ]]
[[ 0.75281143 13.185498   -0.0744044   8.3608    ]]
[[ 0.70041907  8.394778   -0.5433582  10.104477  ]]
[[ 0.41851714  8.021371   -0.10713977 10.448931  ]]
[[ 0.9100847  10.385565   -0.06593798  6.4656577 ]]
[[ 0.49032408  8.21299    -0.3397141   7.9538765 ]]
[[ 0.6245018  8.330218  -0.6329776 10.57063  ]]
[[-4.4500117 10.411617  -5.598406   5.736074 ]]
[[-6.6350913 10.638501  -5.439796   7.1896563]]
[[-4.3620906  8.617734  -5.3627934  5.147705 ]]
[[-5.9646754  8.371773  -5.2647305  8.047832 ]]
[[-5.3679833  9.636351  -5.702138   7.6455383]]
[[-7.0008693 15.988868  -5.0974836  5.025121 ]]
[[-5.0552516 12.447787  -5.390852   6.5413756]]
[[-7.459565  11.311205  -5.5899305  6.212981 ]]
[[-7.9217253 16.476774  -5.7235613  5.0083094]]
[[-6.056886  11.111649  -5.9674354  7.2387557]]
[[-6.762881  11.4487    -5.3248167  5.6647096]]
[[-7.9597044 15.567575  -5.3980794  3.835786 ]]
[[-5.547509  13.069379  -5.4536104  6.38873  ]]
[[-5.3685775 10.185874  -4.9719577  7.137623 ]]
[[-1.0939559  8.626828  -4.9948215  6.0170674]]
[[-5.5522165  8.799543  -5.6622877  7.063738 ]]
[[-5.3780813  8.406032  -4.953366   7.806597 ]]
[[-6.3297663 15.885416  -5.209271   4.71005  ]]
[[-5.481552 10.572264 -5.604566  6.22324 ]]
[[-5.3131843 10.914442  -5.3242674  7.961796 ]]
[[-5.6244264 12.383445  -7.855268   7.9180465]]
[[-5.14093   9.015112 -7.677931  9.824124]]
[[-4.567241 11.140617 -7.733971  7.120761]]
[[-6.0809155  9.104654  -7.4970603 10.959587 ]]
[[-5.1293993 10.183226  -8.04092   10.545338 ]]
[[-4.9599195 15.975898  -7.396726   6.802213 ]]
[[-5.4697495 12.287762  -7.8044295  8.992147 ]]
[[-6.6764545 12.274312  -8.056457   8.492583 ]]
[[-6.214182  15.93676   -8.355912   6.9589252]]
[[-5.471672 13.169526 -8.377488  8.992148]]
[[-7.574686  15.672826  -7.6229424  7.6599765]]
[[-3.2235837 12.008233  -7.908734   5.343091 ]]
[[-5.9573545 13.231703  -7.6660585  8.890935 ]]
[[-4.8133063  9.425732  -7.258739   9.32519  ]]
[[-3.0068386 12.620626  -7.244567   8.2047615]]
[[-5.887701   9.86815   -7.8542805 10.453121 ]]
[[-5.336582  9.296545 -7.249658 10.82505 ]]
[[-4.799264 16.075869 -7.511781  6.596831]]
[[-5.680682 12.165011 -7.778583  8.659103]]
[[-5.0474195  9.978655  -7.617324  10.579929 ]]
