[[ 1.0810295 -2.646104  10.232624   2.1595793 -2.3404691  5.234924 ]]
[[ 0.6407325 -3.6174862  8.999472   2.3470984 -2.2659106  6.9913816]]
[[ 0.13275495 -1.4861206   8.374889    2.0024369  -2.2008834   4.039584  ]]
[[ 0.6351457 -2.3391182  6.518293   1.871501  -2.2108264  7.229129 ]]
[[-0.39028457 -2.2585576   7.6440277   2.0746033  -2.496307    7.4431305 ]]
[[ 1.1644711  -0.42730734  6.6711473   2.261785   -2.1769712   4.041532  ]]
[[ 1.6134663 -2.2848365  9.347764   1.9440492 -2.2515328  5.590492 ]]
[[ 0.6673203 -2.2406588  8.373264   1.91749   -2.4284427  5.051288 ]]
[[ 1.4674914 -2.8011217 11.253281   2.1285555 -2.5058236  4.3541675]]
[[ 0.46404114 -2.7784846   8.374667    2.092133   -2.7680461   5.9915147 ]]
[[ 0.3799963 -2.258076   9.053281   2.042614  -2.2593737  4.782419 ]]
[[ 1.4298971 -2.1332185 12.910157   2.080756  -2.3883586  3.463177 ]]
[[ 1.4107691 -2.7667809 10.149168   2.062058  -2.1496043  5.5934515]]
[[ 1.1740268 -1.8025742  6.519521   1.8486967 -2.0785031  5.6338825]]
[[ 0.67087734  1.2821658   7.32146     1.9779123  -2.0741057   4.240692  ]]
[[ 0.9554627 -1.9883077  6.70858    2.075801  -2.3274956  6.679729 ]]
[[ 1.2589626 -2.3930857  6.637089   1.8523998 -2.0515916  7.3175426]]
[[ 0.42215952 -0.3821515   9.950436    2.3850696  -2.172969    3.6010232 ]]
[[ 0.2951524 -2.5477266  7.7357044  1.9959731 -2.4123719  5.52806  ]]
[[ 0.8474369 -1.8774481  6.7898626  1.7594017 -2.2610023  7.3643303]]
[[ 1.1839821 -3.458006  13.4847145  1.6677117 -4.0606346  7.2294617]]
[[ 0.47953564 -3.4809704  12.701545    1.8199042  -4.0617146   9.027123  ]]
[[ 0.12338727 -1.9473697   7.8031707   1.8901672  -4.2780313   6.7420626 ]]
[[ 1.0713948 -3.616301   8.242022   1.5685846 -3.9860349  9.880147 ]]
[[ 0.7990501 -2.8828368  9.296753   1.6924349 -4.0619392  9.631254 ]]
[[ 0.89051396 -2.4788716  11.283894    1.9447293  -4.0622764   6.4530106 ]]
[[ 1.0040007 -2.4699566  8.999533   1.5920845 -4.112806   8.532451 ]]
[[ 0.64647275 -3.6968515   9.570882    1.5659605  -4.3294344   7.850674  ]]
[[ 1.0846318 -2.4387584  9.938193   2.013269  -4.6347976  6.4524827]]
[[ 0.3577614 -4.2077727 12.922107   1.6353737 -4.3224483  8.222757 ]]
[[ 1.0641433 -4.6947846 12.175728   1.6091763 -3.7604382  6.8218303]]
[[ 1.2613155 -3.089064  13.44525    1.8368753 -4.1605706  4.9141793]]
[[ 1.1526325 -4.158051  13.422742   1.6982849 -3.6746337  8.347715 ]]
[[ 1.0143532 -3.1432874  8.205811   1.5210866 -3.8958645  8.735501 ]]
[[ 0.64841676 -1.5255972  11.635784    1.8567643  -3.625008    7.9763117 ]]
[[ 1.2938055 -3.6797562  9.287101   1.7261071 -4.2499475  9.3547945]]
[[ 1.2297796 -3.4371583  8.475893   1.5067322 -3.4364884 10.006088 ]]
[[ 0.3810936 -2.0744567 13.589539   2.2068088 -3.6701     6.0322847]]
[[ 0.23764938 -3.1151168  10.859267    1.6115004  -3.7842383   7.8053308 ]]
[[ 1.1811748 -3.0810204  9.490206   1.4323083 -3.583608  10.453191 ]]
[[-0.16558148  0.5345039  11.144677    0.37474307 -0.8263785   5.5934806 ]]
[[-0.04433451  0.47512823  9.169696    0.41635168 -0.76862323  7.083082  ]]
[[-0.01214198 -0.09864473  8.114803    0.33404797 -0.80428267  4.690154  ]]
[[-0.31320184  1.2513857   6.641342    0.2993621  -0.6837526   7.3756704 ]]
[[-0.3490236   1.2892756   7.7787476   0.37085012 -0.7404222   7.675562  ]]
[[-0.1871141   0.03088066 11.693377    0.3460311  -0.7824921   4.79352   ]]
[[-0.13098444  0.50420195  8.832877    0.35345694 -0.7870049   6.3537135 ]]
[[-0.17683631  0.24817961  7.4246044   0.33918574 -0.8162259   5.9282007 ]]
[[-0.09074623  0.03835902 12.054003    0.36017463 -0.87602353  4.8115683 ]]
[[-0.03157789  0.3099024   9.83977     0.37420645 -0.9137378   6.3376007 ]]
[[-0.2116193   0.28478393  7.9807687   0.3643805  -0.7773361   5.042679  ]]
[[-0.10117821 -0.3000068  12.888457    0.3499808  -0.90416825  3.5566022 ]]
[[-0.1015044   0.57114583 10.512743    0.39076072 -0.79080933  6.3299093 ]]
[[-0.13660787  1.1505579   9.879882    0.3005388  -0.67688483  6.0474343 ]]
[[-0.045452   -0.18638764 11.393341    0.3215431  -0.77285355  6.27765   ]]
[[-0.3266423   1.1141111   7.26401     0.36038634 -0.74179775  7.4541473 ]]
[[-0.3443428   1.2800045   7.4142356   0.32407206 -0.6418107   8.058962  ]]
[[-0.02878525 -0.19903047 12.237704    0.4078204  -0.80528194  4.4115305 ]]
[[-0.0272873  0.6710904  8.188012   0.3557349 -0.777318   6.0557146]]
[[-0.3207776   1.0447156   7.854013    0.28125817 -0.7056659   8.141548  ]]
[[ 0.33857784 -2.569659   10.039213    1.7229546  -3.9889038   7.76144   ]]
[[ 0.20543125 -2.4700599   9.188241    1.7319044  -4.0665007   9.526887  ]]
[[ 0.0560636 -2.2319248 12.709806   1.8030611 -3.6923764  7.0953345]]
[[ 0.3471983 -2.320568   7.219786   1.3752064 -3.562526   9.782938 ]]
[[-0.5875225 -1.572171   8.461337   1.478374  -3.8048162  9.694176 ]]
[[ 0.28817904 -1.4631231  10.258902    1.8778487  -3.3628094   6.6297016 ]]
[[ 0.34149972 -1.9642054  10.24234     1.5782725  -3.9859998   8.832887  ]]
[[ 0.6344415 -2.8162324 10.443257   1.4639574 -3.7466342  7.866841 ]]
[[ 0.44982105 -1.6560599  11.256048    1.9817044  -4.328497    6.830987  ]]
[[ 0.16543202 -2.299127   10.487591    1.721765   -4.8801255   9.076634  ]]
[[ 0.31893972 -1.9962114   6.6828384   1.5784706  -3.7615488   7.364701  ]]
[[ 0.4921658 -2.115092  15.915277   1.8261334 -4.1226945  5.4418044]]
[[ 0.44872236 -2.7833843  11.188369    1.6835451  -3.7653763   8.7805805 ]]
[[ 0.45645416 -2.2708082   8.795788    1.4643589  -3.2814152   8.866913  ]]
[[ 0.2838931 -1.497623  10.791265   1.7950468 -3.6482372  8.437222 ]]
[[ 0.24863587 -2.086647    8.147861    1.6204547  -3.514811   10.076684  ]]
[[ 0.35140845 -2.3071442   7.800135    1.4520047  -3.124409   10.663399  ]]
[[ 0.18026774 -1.242686    9.644298    2.340517   -3.6786568   6.529474  ]]
[[ 0.09663142 -1.8339009   9.483181    1.6302547  -3.7183383   8.445771  ]]
[[ 0.23865993 -2.0185375   8.84094     1.3695052  -3.2383888  10.882924  ]]
[[ 0.9307804   0.43704152 12.448169    2.3070195  -3.9090393   6.089804  ]]
[[ 0.4973123  0.9095452 11.546957   2.5052872 -3.736074   7.6913576]]
[[ 0.12432808  0.6795263  11.422962    2.232681   -3.454251    5.4206038 ]]
[[ 0.95821774  0.9702946   7.7359743   2.1625233  -3.3104968   8.986019  ]]
[[ 0.6169569  1.0367556  8.436505   2.330289  -3.8403842  8.5159025]]
[[ 1.1733748  -0.13592643  9.139831    2.1880746  -3.1393096   5.2865243 ]]
[[ 1.2349905  1.135717  10.768093   2.1572459 -3.2846663  6.8019176]]
[[ 1.334387    0.83354384 10.314427    2.1284087  -3.6188524   6.3272734 ]]
[[ 1.1790462   0.79535383 12.931872    2.2123933  -4.049171    5.2926807 ]]
[[ 0.3729842  0.7088709 10.174666   2.246403  -4.2270775  6.9374127]]
[[ 0.64902335  0.41003218  9.247217    2.221543   -3.4068325   5.7705173 ]]
[[ 1.2389678   0.45745644 11.161591    2.0548897  -3.6846397   4.011241  ]]
[[ 1.2152967   0.52799135 11.735959    2.33872    -4.132227    7.1684823 ]]
[[ 1.0914892  0.6899383  9.781745   2.0911293 -3.4722903  7.315599 ]]
[[ 0.6216404  0.6296645 14.055309   1.9521272 -2.7906218  6.613279 ]]
[[ 1.2396308  1.1574365  8.677529   2.371115  -3.528849   8.372465 ]]
[[ 0.8699803  0.5499594  7.581984   2.0906074 -3.3628528  8.876116 ]]
[[ 0.3729842  0.8270877 14.139186   2.4401686 -3.0998375  4.9176292]]
[[ 0.24865615  1.0148244   9.021699    2.209748   -3.6596386   6.6116943 ]]
[[ 0.6602243  1.012868   8.593869   1.9737949 -3.3560703  9.241307 ]]
